1.000000,1.000000,1.000000,1.000000,1.000000,1.000000,1.000000,1.000000,1.000000,1.000000
1.000000,1.000000,1.000000,1.000000,1.000000,1.000000,1.000000,1.000000,1.000000,1.000000
1.000000,1.000000,1.000000,1.000000,1.000000,1.000000,1.000000,1.000000,1.000000,1.000000
1.000000,1.000000,1.000000,1.000000,1.000000,1.000000,1.000000,1.000000,1.000000,1.000000
1.000000,1.000000,1.000000,1.000000,1.000000,1.000000,1.000000,1.000000,1.000000,1.000000
1.000000,1.000000,1.000000,1.000000,1.000000,1.000000,1.000000,1.000000,1.000000,1.000000
1.000000,1.000000,1.000000,1.000000,1.000000,1.000000,1.000000,1.000000,1.000000,1.000000
1.000000,1.000000,1.000000,1.000000,1.000000,1.000000,1.000000,1.000000,1.000000,1.000000
1.000000,1.000000,1.000000,1.000000,1.000000,1.000000,1.000000,1.000000,1.000000,1.000000
1.000000,1.000000,1.000000,1.000000,1.000000,1.000000,1.000000,1.000000,1.000000,1.000000
1.000000,1.000000,1.000000,1.000000,1.000000,1.000000,1.000000,1.000000,1.000000,1.000000
1.000000,1.000000,1.000000,1.000000,1.000000,1.000000,1.000000,1.000000,1.000000,1.000000
1.000000,1.000000,1.000000,1.000000,1.000000,1.000000,1.000000,1.000000,1.000000,1.000000
1.000000,1.000000,1.000000,1.000000,1.000000,1.000000,1.000000,1.000000,1.000000,1.000000
1.000000,1.000000,1.000000,1.000000,1.000000,1.000000,1.000000,1.000000,1.000000,1.000000
1.000000,1.000000,1.000000,1.000000,1.000000,1.000000,1.000000,1.000000,1.000000,1.000000
1.000000,1.000000,1.000000,1.000000,1.000000,1.000000,1.000000,1.000000,1.000000,1.000000
1.000000,1.000000,1.000000,1.000000,1.000000,1.000000,1.000000,1.000000,1.000000,1.000000
1.000000,1.000000,1.000000,1.000000,1.000000,1.000000,1.000000,1.000000,1.000000,1.000000
1.000000,1.000000,1.000000,1.000000,1.000000,1.000000,1.000000,1.000000,1.000000,1.000000
1.000000,1.000000,1.000000,1.000000,1.000000,1.000000,1.000000,1.000000,1.000000,1.000000
1.000000,1.000000,1.000000,1.000000,1.000000,1.000000,1.000000,1.000000,1.000000,1.000000
1.000000,1.000000,1.000000,1.000000,1.000000,1.000000,1.000000,1.000000,1.000000,1.000000
1.000000,1.000000,1.000000,1.000000,1.000000,1.000000,1.000000,1.000000,1.000000,1.000000
1.000000,1.000000,1.000000,1.000000,1.000000,1.000000,1.000000,1.000000,1.000000,1.000000
1.000000,1.000000,1.000000,1.000000,1.000000,1.000000,1.000000,1.000000,1.000000,1.000000
1.000000,1.000000,1.000000,1.000000,1.000000,1.000000,1.000000,1.000000,1.000000,1.000000
1.000000,1.000000,1.000000,1.000000,1.000000,1.000000,1.000000,1.000000,1.000000,1.000000
1.000000,1.000000,1.000000,1.000000,1.000000,1.000000,1.000000,1.000000,1.000000,1.000000
1.000000,1.000000,1.000000,1.000000,1.000000,1.000000,1.000000,1.000000,1.000000,1.000000
1.000000,1.000000,1.000000,1.000000,1.000000,1.000000,1.000000,1.000000,1.000000,1.000000
1.000000,1.000000,1.000000,1.000000,1.000000,1.000000,1.000000,1.000000,1.000000,1.000000
1.000000,1.000000,1.000000,1.000000,1.000000,1.000000,1.000000,1.000000,1.000000,1.000000
1.000000,1.000000,1.000000,1.000000,1.000000,1.000000,1.000000,1.000000,1.000000,1.000000
1.000000,1.000000,1.000000,1.000000,1.000000,1.000000,1.000000,1.000000,1.000000,1.000000
0.997740,0.998086,0.896015,0.998906,0.990990,0.998491,1.002803,0.996727,0.964761,0.992909
0.986336,0.993760,0.256090,0.995909,0.925486,0.992310,1.070565,0.958381,0.876388,0.954620
0.975556,0.991797,-0.394726,0.994082,0.855578,0.987037,1.156000,0.913430,0.828536,0.917428
0.984388,0.995508,0.052752,0.996342,0.568338,0.989921,1.105204,0.941705,0.913358,0.872760
0.996283,0.997394,0.576537,0.997474,-0.823391,0.970874,1.014765,0.987441,0.993819,0.651931
0.997945,0.998411,0.801036,0.998381,0.259355,0.828177,1.003572,0.993177,0.993167,0.720151
0.968982,0.998410,0.760312,0.998174,-0.609578,0.615954,1.007593,0.995184,0.979866,0.821794
0.926015,0.998460,0.747604,0.997965,0.149580,0.869671,1.091547,0.990615,0.990726,0.923234
0.885322,0.993764,1.023546,0.994300,0.093730,0.844427,0.945297,0.972944,0.995624,0.894479
0.654332,0.866722,3.372664,0.985826,0.070999,0.990661,-0.044691,0.987143,0.900523,0.941481
0.989208,0.957547,1.157444,0.995469,0.239570,0.995678,0.860637,0.995483,0.956108,0.872788
0.990316,0.998348,0.716747,0.998303,0.230586,0.997858,1.129976,0.998035,0.995017,0.865717
0.938087,0.999097,0.909706,0.709233,0.878403,0.948703,1.062305,0.999027,0.995482,0.952272
0.789206,0.998926,0.933766,0.403495,0.975320,0.860784,1.083968,0.998928,0.989868,0.954106
0.947080,0.999367,0.776188,0.884553,0.988970,0.962773,1.021699,0.999349,0.968392,0.893120
0.999431,0.999672,0.851403,0.994813,0.996221,0.995310,1.000796,0.999660,0.979011,0.931633
1.000000,1.000000,1.000000,1.000000,1.000000,1.000000,1.000000,1.000000,1.000000,1.000000
1.000000,1.000000,1.000000,1.000000,1.000000,1.000000,1.000000,1.000000,1.000000,1.000000
1.000000,1.000000,1.000000,1.000000,1.000000,1.000000,1.000000,1.000000,1.000000,1.000000
1.000000,1.000000,1.000000,1.000000,1.000000,1.000000,1.000000,1.000000,1.000000,1.000000
1.000000,1.000000,1.000000,1.000000,1.000000,1.000000,1.000000,1.000000,1.000000,1.000000
1.000000,1.000000,1.000000,1.000000,1.000000,1.000000,1.000000,1.000000,1.000000,1.000000
1.000000,1.000000,1.000000,1.000000,1.000000,1.000000,1.000000,1.000000,1.000000,1.000000
1.000000,1.000000,1.000000,1.000000,1.000000,1.000000,1.000000,1.000000,1.000000,1.000000
1.000000,1.000000,1.000000,1.000000,1.000000,1.000000,1.000000,1.000000,1.000000,1.000000
0.999863,0.999869,0.999391,0.999861,0.999854,0.999664,1.000296,0.999865,0.999863,0.999789
0.999740,0.999832,0.994840,0.999877,0.988588,0.999380,1.004503,0.999843,0.999240,0.999287
0.998861,0.999285,0.976370,0.999498,0.947160,0.997288,1.020737,0.999336,0.996543,0.996794
0.994543,0.994287,0.776341,0.941464,0.952550,0.991216,0.839169,0.985754,0.888107,0.984541
0.938218,0.973444,-0.515827,0.822864,0.775816,0.934513,0.705696,0.888839,0.586769,0.901435
0.651798,0.957855,-1.244041,0.803309,0.667961,0.483365,3.408086,0.787650,0.515783,0.864318
0.685106,0.962721,-1.182593,0.792185,-1.493999,0.006389,1.392822,0.850512,0.261825,0.652289
0.943938,0.836227,0.131200,0.513004,-1.986042,-0.034829,1.421511,0.936074,0.340025,0.466455
0.861446,0.257557,2.290430,0.250564,-0.826871,-0.649516,1.159799,0.759553,0.387630,0.247278
0.754165,0.153253,1.258857,0.230959,-1.496593,-0.677359,-0.305251,0.674985,0.127660,-0.088153
0.675566,0.235655,-0.667225,0.139569,-2.599932,-1.451634,0.064026,0.844228,-0.419080,-0.117433
0.103867,0.749573,-1.315412,0.228870,-1.007648,-1.314054,1.760351,0.761318,0.014078,0.165738
-0.707438,0.118293,-1.090783,0.076839,-0.115143,-1.128907,-0.573043,0.693232,-0.062498,-0.171569
-0.474814,-1.098968,-0.465762,0.564551,-2.436191,-1.058563,1.295632,0.830656,0.047881,-0.196731
-0.242832,0.601489,-1.847142,0.743922,-1.081105,-0.407861,2.074541,0.911435,-0.425026,0.073277
0.169582,0.478207,-1.070282,0.288745,-0.234546,0.010929,2.488719,0.942408,-0.793962,0.339488
0.430836,0.910474,-0.337449,0.368667,-0.043557,-0.537636,1.486978,0.980532,0.634269,0.629964
0.672521,0.993432,0.115145,0.892422,-0.787319,-0.994539,1.405467,0.992608,0.837429,0.777058
0.935022,0.998029,0.683596,0.988488,0.047355,-0.014625,1.266486,0.997795,0.973754,0.913240
0.999356,0.999269,1.093547,0.999354,0.998506,0.997967,0.998733,0.999327,0.269639,0.998483
0.999729,0.999675,1.041149,0.999731,0.999361,0.999417,0.999390,0.999704,0.670453,0.999693
1.000000,1.000000,1.000000,1.000000,1.000000,1.000000,1.000000,1.000000,1.000000,1.000000
1.000000,1.000000,1.000000,1.000000,1.000000,1.000000,1.000000,1.000000,1.000000,1.000000
1.000000,1.000000,1.000000,1.000000,1.000000,1.000000,1.000000,1.000000,1.000000,1.000000
1.000000,1.000000,1.000000,1.000000,1.000000,1.000000,1.000000,1.000000,1.000000,1.000000
1.000000,1.000000,1.000000,1.000000,1.000000,1.000000,1.000000,1.000000,1.000000,1.000000
1.000000,1.000000,1.000000,1.000000,1.000000,1.000000,1.000000,1.000000,1.000000,1.000000
1.000000,1.000000,1.000000,1.000000,1.000000,1.000000,1.000000,1.000000,1.000000,1.000000
0.999950,0.999961,0.994861,0.999960,0.999956,0.999927,1.000068,0.999960,0.999959,0.999903
0.992897,0.980448,0.766451,0.770918,0.819134,0.964877,0.586964,0.747544,0.955595,0.984748
0.942868,0.881173,0.126962,0.407921,0.724811,0.831858,-0.398295,0.611964,0.559582,0.949040
0.857482,0.742550,0.260427,-0.071833,0.717225,0.775483,-0.617402,0.523714,-0.305497,0.810143
0.500303,0.175000,-0.895297,-0.649450,0.576287,0.355876,0.983528,0.638743,-0.755836,0.498341
-0.045676,-0.152792,0.515847,-0.873172,-0.125712,-0.452147,0.712534,0.475278,-0.926494,0.362993
-0.402829,-0.328712,1.900122,-0.279456,-2.871469,-1.535833,-0.465794,0.461346,-0.446343,0.130813
-1.650893,-1.027415,2.604913,-0.313734,-3.298110,-1.399143,-0.646384,0.209076,0.543341,-0.185953
-2.055641,-1.215072,-1.543403,0.338691,-1.370975,1.258187,-0.118779,0.146672,-0.792414,-1.983073
-0.404435,-1.816796,0.068896,1.214569,-3.946593,0.546691,1.400984,0.145266,-1.040411,-1.974419
1.057367,-0.836662,0.892067,0.605055,-2.594380,-0.233943,0.520497,-0.315327,-0.789490,-1.757653
0.145118,1.036823,-1.239983,0.614983,-1.455944,-1.012043,0.027454,-0.204361,1.425276,-1.645056
-1.397244,-0.414328,0.024018,1.005478,-2.087766,0.521937,0.220832,-0.073280,-1.837092,-1.496868
0.190178,-0.975389,-0.489518,0.188734,-2.634731,-1.755611,0.133050,0.116014,-0.336822,-1.188619
-0.795637,-0.320394,-1.792134,-0.124981,-1.552151,-1.840977,0.777659,0.298303,-0.582246,-0.663903
-0.098811,-0.569017,-0.476312,0.197669,-1.031053,0.208895,1.687888,0.558951,0.028274,-0.483658
-0.087720,0.741558,0.589460,0.690527,-1.782591,-0.999164,0.868470,0.879662,-1.525806,-0.136594
0.095027,0.985051,-0.555192,0.850220,-1.447428,0.337865,-0.615840,0.952596,-0.545074,0.487793
0.313134,0.895870,1.083339,0.510587,-0.129268,0.850699,-2.031774,0.982451,0.591630,0.850237
0.817967,0.995047,0.953938,0.755748,0.848635,0.901717,-1.739487,0.996522,0.096818,0.971213
0.961075,0.998713,0.937010,0.891765,0.923038,1.049277,-1.081365,0.998743,0.867454,0.986409
1.000000,1.000000,1.000000,1.000000,1.000000,1.000000,1.000000,1.000000,1.000000,1.000000
1.000000,1.000000,1.000000,1.000000,1.000000,1.000000,1.000000,1.000000,1.000000,1.000000
1.000000,1.000000,1.000000,1.000000,1.000000,1.000000,1.000000,1.000000,1.000000,1.000000
1.000000,1.000000,1.000000,1.000000,1.000000,1.000000,1.000000,1.000000,1.000000,1.000000
1.000000,1.000000,1.000000,1.000000,1.000000,1.000000,1.000000,1.000000,1.000000,1.000000
1.000000,1.000000,1.000000,1.000000,1.000000,1.000000,1.000000,1.000000,1.000000,1.000000
0.999734,0.999816,0.810887,1.000008,0.999835,0.999802,0.999833,0.999816,0.999781,0.999829
0.980779,1.017670,0.120265,0.998507,1.337720,0.922598,0.990495,0.994317,0.979351,0.972353
0.844438,0.488121,0.060549,-0.035399,0.279042,0.591622,0.126414,0.350269,0.020978,0.860965
0.741957,-0.254244,0.264864,0.020298,-1.006967,-0.065328,-0.693010,0.300387,-0.736757,0.693195
0.558467,-0.166349,0.424291,-0.430653,0.205884,-0.692647,-0.626913,0.179491,1.886800,0.459520
0.221892,0.827691,-1.751701,1.163385,-0.059119,1.309386,0.585488,0.116134,2.518887,0.155546
-0.547110,-2.019655,2.209420,-0.409441,-0.528302,-0.109704,-1.215257,-0.290926,2.796225,-0.551241
-0.778252,-0.524607,0.601607,1.177508,-0.773790,-0.806296,-0.465976,-0.679674,-1.012971,-1.187449
0.118280,-0.106491,0.252745,-2.016513,0.332177,0.583630,-0.640904,-0.225067,0.308788,0.997373
0.299487,-0.171744,-1.362120,0.167309,-1.012321,0.923435,-3.138280,0.071630,0.878905,-0.714959
1.792158,-0.741278,0.835846,0.534315,-1.831214,-1.099834,-0.702181,-0.121012,-0.474056,-2.022022
0.345542,-2.661644,0.426023,-0.582327,-1.014018,0.620096,-0.405542,-0.241275,-0.091693,0.501901
-0.018032,2.084573,-0.835326,0.982061,1.421207,0.080299,-0.943997,-1.587123,-1.131580,0.677670
-1.635867,-0.774137,0.512838,0.310855,-2.142873,-1.117993,0.337923,-1.406535,0.819522,-0.596286
0.292163,-2.314416,-0.583074,-0.774364,-1.045748,0.721742,-0.204755,-0.493481,-0.865497,-3.355809
0.044994,1.860531,0.280346,-0.161670,-2.098928,-0.498577,-1.848103,-0.316524,0.603537,-3.308033
-0.141377,-0.761912,-0.707730,0.445038,-0.947870,0.158440,-0.838844,-0.518468,0.028565,-2.629132
0.272748,-1.190465,-0.610412,-0.389530,0.543300,0.522225,1.162599,-0.080197,-1.297776,-1.383248
-0.696381,0.510839,0.287950,-0.137463,0.733131,-0.619316,-1.003282,0.423584,0.463763,-0.309587
-1.007243,0.410563,-1.481308,-1.536563,2.679150,0.958413,-1.786325,0.369392,-1.364000,-0.062032
0.505475,1.065622,-0.385473,-0.006392,0.296096,-1.461784,-1.073956,0.728771,-0.756555,0.502643
1.087298,0.783697,0.165407,0.777058,0.653751,1.220476,-1.324735,0.839986,1.465226,0.686920
0.988537,0.935217,0.444792,0.987945,0.912271,2.758124,0.839868,0.997562,0.850062,0.995169
1.000000,1.000000,1.000000,1.000000,1.000000,1.000000,1.000000,1.000000,1.000000,1.000000
1.000000,1.000000,1.000000,1.000000,1.000000,1.000000,1.000000,1.000000,1.000000,1.000000
1.000000,1.000000,1.000000,1.000000,1.000000,1.000000,1.000000,1.000000,1.000000,1.000000
1.000000,1.000000,1.000000,1.000000,1.000000,1.000000,1.000000,1.000000,1.000000,1.000000
0.999852,1.005726,0.955226,0.996002,0.999149,0.999838,0.999845,0.994217,0.988435,0.999710
0.993537,0.995448,0.465784,1.194814,0.924343,0.710540,0.995358,0.993007,0.961214,0.984048
0.615013,0.876919,-0.215197,-0.158939,1.657091,-0.445768,1.265409,0.684765,0.683044,0.772982
0.126898,-0.428056,-0.006800,0.115975,0.597770,-1.375896,0.681651,-0.533376,-1.565123,0.331232
-0.181879,-0.787076,1.132353,-0.632034,-1.062336,-2.526058,-0.398372,-0.672182,-2.230627,-0.132258
-0.444230,1.024729,0.586804,0.584128,-1.086189,-2.539924,-0.508276,0.149656,-0.574652,-0.774391
-0.495730,-1.326052,0.888452,-0.331973,0.118984,1.774730,-0.086553,-0.266595,-2.893657,-1.446339
-1.094485,0.383703,-1.639510,-0.599882,-0.623961,-1.090095,-0.626277,0.388611,-0.211415,-1.359784
-1.451309,-2.338798,0.078583,0.233509,0.866847,-1.343574,-0.971902,-0.186035,-1.657106,-2.196534
-1.167728,-1.605583,1.440272,0.808791,-0.525849,-0.949001,-0.640583,0.965821,2.094125,0.803107
-0.984371,-1.080048,0.153822,0.227089,0.189206,-1.284675,0.489089,-0.444956,-0.160331,2.116418
-1.252011,-1.034381,1.067680,0.960111,-0.750901,-0.308517,-0.876575,-1.152371,-1.439831,0.637166
0.664381,-0.317296,1.199821,-1.748882,0.293680,1.217286,-1.379247,0.962148,2.944664,-1.858581
1.048843,-0.147552,-0.021878,-0.241475,-0.634070,-1.790551,-0.567830,1.156091,-1.367180,0.636274
1.758016,1.061783,0.326609,1.632648,0.386480,0.185996,-1.932317,-1.555008,0.292521,-2.035729
-0.140978,-0.855628,1.039318,-1.221722,3.223293,0.150916,-1.217637,-4.893862,-0.047936,0.211194
0.012956,-0.305924,0.421101,-0.062235,-1.502592,1.356994,-0.196499,-3.091501,0.997069,-2.235465
0.349071,0.495857,-1.042689,-1.233478,-0.180984,-0.788086,0.412406,-2.218418,0.006590,1.641122
-0.210164,-0.068874,0.320891,-1.813188,1.347198,0.864745,1.624154,-1.967507,-0.071592,-1.487389
-0.240825,-0.683884,-1.510775,-0.591378,0.838505,-0.368415,1.494950,-1.731583,1.378007,-3.046210
-0.897782,0.905746,-1.051862,-1.977296,0.965858,2.233525,0.875835,-1.043337,0.060963,-1.514940
0.108917,1.705710,-0.723985,1.193735,-0.792668,-0.076289,-0.970531,-0.312442,0.456011,-0.901160
0.257763,0.108370,0.320074,-0.163273,-0.724403,0.370264,-1.041122,0.668678,-0.571509,-0.176367
0.650584,0.554027,1.045991,0.823223,0.747600,2.761184,1.016827,0.926790,1.462168,0.661575
0.954897,0.826756,0.887494,0.982561,0.800092,1.418347,1.336054,0.997653,1.892339,0.962790
0.995019,0.999964,0.999954,0.999807,0.991819,1.000276,0.993817,0.999959,0.985168,0.998574
1.000000,1.000000,1.000000,1.000000,1.000000,1.000000,1.000000,1.000000,1.000000,1.000000
1.000000,1.000000,1.000000,1.000000,1.000000,1.000000,1.000000,1.000000,1.000000,1.000000
0.993824,1.001259,1.012006,0.983388,0.989647,0.999734,1.003209,0.966231,0.996720,0.982552
0.947664,0.978933,-0.254214,1.142771,0.756452,0.317794,0.837308,0.827113,0.887773,0.871631
0.401863,0.878761,-1.104147,-0.337004,2.558642,-1.127404,0.665695,0.147239,0.349676,0.396366
-0.129953,-1.175695,0.826261,-0.016620,1.273738,-1.504098,-0.091828,-0.538347,-1.624531,-1.001581
-0.563436,0.091879,-0.451119,1.793784,0.089597,-0.983476,0.756293,-0.231444,0.018977,-0.726215
-0.358866,-0.253220,0.208540,0.804688,0.103673,-0.957746,-0.882925,1.022759,-0.418592,-0.173690
-0.668804,-1.674830,-0.208237,-1.257454,1.758963,1.658442,-0.020219,1.097136,-1.479857,-1.890795
-0.840063,0.020414,0.900394,0.665372,-0.239561,1.115079,1.191209,1.663185,0.140163,1.391290
0.812237,0.294202,0.463172,1.057095,-0.176565,0.270643,0.233825,1.686548,-1.647257,0.810201
0.293545,-0.720557,-0.665519,0.247063,-1.307589,-0.023904,0.060258,-0.069554,0.884151,-0.342654
0.968113,-1.984282,-0.493531,-0.923373,0.139827,2.185131,-1.267636,-0.606549,-1.559345,-0.632332
0.560505,0.123945,-0.635758,3.350306,-1.530273,-2.185167,0.869282,0.413184,2.928913,1.205218
-0.271629,-1.729087,-0.725936,-1.156414,0.165307,0.857544,-0.423377,0.261709,-1.646158,0.233400
-1.052607,-0.134017,1.390115,0.588537,-1.697272,0.369657,0.954248,-0.298402,1.368727,0.828541
0.524453,-1.554391,-0.326250,0.066050,1.158880,0.229053,-0.480015,1.387592,-0.170923,0.306382
0.122777,-0.198199,0.238677,-0.472249,-2.398845,-1.297817,0.686711,0.557401,2.125849,1.655786
-1.370417,0.110820,-0.507604,0.344378,-1.384888,0.275000,0.913419,-0.376781,-1.265538,0.421314
1.531840,0.675152,0.213512,0.175497,-0.056700,0.942963,-0.267212,0.822335,-0.565499,-0.086788
0.040047,0.204109,-0.407963,1.513103,1.326052,0.000563,-1.225768,-0.506947,-0.267384,0.449461
1.628501,-0.352722,0.543060,-1.585910,-0.505829,0.338645,-1.972955,-0.328930,0.418944,-1.056553
0.299644,-0.407228,-1.403407,-0.299073,0.883840,-0.759905,0.198028,1.524473,0.175158,-2.854009
-0.404337,-1.370157,-1.150744,-0.633053,2.178309,-0.491230,1.239674,-0.641969,-0.383464,-1.863305
-0.930021,-1.285800,-1.234294,-1.384084,-0.644050,1.719092,-0.073457,0.094605,0.221782,-1.110834
-0.737792,-0.121557,-0.187191,0.412223,0.553820,1.575386,0.744925,0.293367,0.516383,-0.118034
0.423457,0.800625,0.489157,0.965341,-0.735697,1.261613,2.337310,0.627870,-1.368670,0.862386
0.584308,0.874929,0.662385,0.996624,0.931025,0.227926,2.181964,0.786309,1.375040,0.834302
0.999855,0.998430,0.980261,0.942988,0.993796,0.997856,0.999748,1.000000,0.971867,0.990744
0.989070,0.992547,0.812467,1.087255,0.972423,0.818656,0.995942,0.930136,0.882122,0.927070
0.812819,0.991689,1.004278,-0.175279,0.972789,0.960714,0.985449,0.407007,0.915251,0.848747
0.700659,0.792109,-0.163303,2.022561,0.204251,0.133583,0.092098,0.731257,0.724743,0.605674
0.302578,0.521636,-0.582840,1.122699,0.407056,-2.117274,-0.050258,0.441978,-0.769109,-1.397155
-0.177898,-1.073292,-0.173132,-1.878821,0.497281,-0.876232,-0.185239,1.307284,-0.568132,-1.686872
-0.319868,-1.813950,-2.093281,-0.705110,-0.343895,0.663159,-0.445320,1.059795,-1.048990,-0.935656
0.250532,0.922477,-0.011636,0.640930,-1.810991,-2.975538,-1.951088,3.378926,-1.477008,-1.525823
-0.516624,-0.334801,1.934914,0.839882,1.207685,0.565600,-2.106537,-3.665061,1.397367,0.333183
0.150707,-0.863878,-2.525412,0.786000,0.513065,-1.255736,-0.722907,-0.843374,-0.417061,-3.241659
0.855295,-1.596072,-0.454863,-1.042899,-1.064550,0.933259,-0.563105,0.609745,0.835362,1.160134
-0.738272,-1.277192,1.631964,-1.085042,-0.818049,-0.689709,0.115010,-0.322195,-0.844127,1.837157
0.495306,0.350329,1.424636,1.565628,-1.539933,0.551467,-0.811900,1.533529,0.787296,-0.920726
1.041934,-0.960254,0.148314,-3.172464,-1.037582,-0.645132,-2.276135,-0.627576,-0.600292,1.069500
0.502582,0.843316,0.634643,2.554449,-0.851974,1.048478,-1.074454,-2.184887,-0.235241,1.681589
0.746259,-1.118652,-1.138290,-0.971777,-1.591140,-0.573047,-1.152187,0.524337,0.143484,1.747522
0.160804,-0.371795,-0.206679,-0.806168,-2.733595,-0.432840,-1.716293,0.055944,0.129800,2.574134
1.276359,-2.148086,-2.289018,0.743727,-1.065271,0.099614,-0.264259,1.071708,-1.272238,0.276819
-0.350284,0.576715,-0.442080,1.448996,2.703143,-1.457415,-0.360216,-0.248427,-0.857584,-1.177439
0.855887,1.191876,0.091300,-1.568332,-1.129036,0.219878,-3.208335,-0.570747,1.016121,0.662009
0.135526,-0.665408,-1.156949,1.102230,-0.265859,1.121005,-2.446193,-0.088361,0.094185,-0.959203
-0.885559,1.211071,0.022016,-1.475134,1.549525,-0.720964,-1.381956,0.572863,-0.313013,0.751469
-0.426030,-0.506537,0.115949,-0.204745,0.280113,0.184209,0.373002,-0.518009,-1.373176,0.687394
-0.075895,-1.967918,-1.645206,-0.959711,0.578533,2.912257,-0.252060,-1.546259,2.916130,-1.133961
-0.800439,-0.858513,-2.247935,-2.034578,-0.274122,0.555970,1.284203,-1.584012,-3.606346,-1.406250
-0.604301,0.537287,-0.596693,-0.337519,-1.086206,2.138485,-0.879985,-1.175215,-1.345858,-1.544361
0.801009,0.767854,0.417519,0.953409,-1.887841,-0.790945,1.537538,0.371813,-0.743389,0.013647
0.990812,0.919546,0.768195,0.998520,0.935145,0.429445,1.835313,0.967844,0.751018,0.814927
0.999411,0.993619,0.919783,0.768315,0.974789,0.991286,0.998975,1.000000,0.885671,0.962387
0.963966,0.986109,0.448681,-0.120704,0.937673,0.946911,0.987311,1.000191,0.784514,0.801643
0.852996,0.979222,0.553003,-1.000269,0.891772,0.904878,0.975314,0.676722,0.719188,0.732046
0.633761,0.717975,-0.990592,0.724825,-0.194792,-0.254217,0.190728,1.298807,0.405778,0.292826
-0.164565,0.225349,-0.312527,2.563114,1.137830,-2.816001,0.199114,-0.959873,-1.935550,-1.102920
-0.634385,-1.960162,2.454743,-0.990944,-0.235299,-0.452658,0.193499,-1.464240,-2.083756,0.484669
-0.255386,-0.911648,-0.408502,2.370536,-0.383121,0.820712,-0.065044,2.744837,1.379798,-2.612542
-1.250761,-0.667943,0.378419,-0.678054,0.166501,-1.851208,-1.653494,0.967362,1.012628,-0.787428
-0.903420,1.236115,-0.177183,-1.776391,-2.165472,-0.043483,0.764861,1.171926,1.043000,-0.058836
-1.257308,-1.834490,0.152898,-1.801984,-0.403657,1.565964,-1.602738,2.016780,-1.018724,0.004283
-0.054504,-0.575488,1.874822,0.662155,0.358701,-1.228786,-1.390928,0.555869,0.345940,-1.910628
-1.309491,-0.674584,-0.384113,0.509086,-0.810088,1.812721,-0.205773,-0.299684,0.590002,-0.490204
-0.153651,-0.258789,-0.878284,-0.087389,-1.811469,0.550518,-0.973194,1.097034,-1.141851,-0.532742
-0.224368,-0.906717,-0.922133,1.788549,-0.235289,0.034216,1.216326,1.307176,-0.133135,0.228198
0.974247,-0.094644,-0.109189,-1.172199,-1.209975,-1.778269,1.150086,0.134634,-0.374223,0.767050
-0.269433,-0.093601,0.075122,0.244423,-1.198975,0.634100,-1.042048,2.122408,-1.472153,-0.883163
0.591738,-0.180136,0.374931,1.425626,1.119572,-1.028273,-0.162520,-0.753425,0.893999,0.565369
0.446886,-0.606323,1.903836,-0.223069,0.157189,0.876039,-1.328709,-0.453228,-0.950536,0.102489
2.036399,0.726846,-0.097595,0.192494,-1.016500,0.596724,-3.371867,0.627916,1.121256,-0.254748
-0.198351,-1.301877,0.676841,0.244085,-0.802661,-0.486240,-2.615162,-0.130718,-0.049874,-0.389383
-0.675419,-0.679253,1.205024,0.148567,-0.343579,0.480797,-0.088380,0.871592,-1.778033,0.494053
-1.097891,0.483205,0.987603,-1.757676,0.242032,2.785069,-3.031397,-0.057568,0.873502,0.467406
-0.173077,-0.464032,1.693690,-0.643984,-0.205815,-0.062294,-0.849765,0.630540,-0.289398,-2.071905
0.119509,-1.478158,-1.754597,0.138733,-0.791946,1.041610,-2.342020,-1.311874,-0.647903,0.195993
-0.220372,-0.446792,-3.246021,-3.452413,0.323670,0.918843,-0.967289,-0.703093,1.638127,-2.036001
-0.220406,0.477340,-1.095922,-0.165025,-0.108576,3.439435,-0.809595,-1.131608,-1.593315,-2.151290
0.591079,0.886006,0.509147,0.949877,-1.188669,-0.671208,0.718752,0.052941,-0.631566,0.108871
0.809152,0.998895,0.983805,0.998666,0.136145,0.451289,0.778603,0.865792,0.989374,0.975387
0.999904,0.998964,0.986980,0.962397,0.995908,0.998586,0.999834,1.000000,0.981444,0.993895
0.975531,0.908943,0.654850,0.016346,0.927616,0.824138,0.934768,1.187266,0.587154,0.807748
0.914565,0.900104,-0.101860,-1.399904,0.561698,0.563551,0.814950,1.753555,0.690466,0.400367
0.609456,0.794489,-0.627683,1.226233,-0.128777,-0.150155,0.021274,1.834890,0.234073,-0.005373
-0.517272,0.159131,-1.943087,0.133611,2.574519,-0.996677,0.324073,0.498099,-0.493350,-0.144372
-0.566559,-1.454951,1.158347,1.002804,0.528773,0.439423,-0.131198,1.825072,-0.453991,-0.677695
-0.282650,-1.993434,-0.396357,-0.360106,0.406972,1.910056,-0.312780,-0.581433,0.940794,-1.207790
-1.536125,-0.704094,0.913289,-1.290759,1.186542,-1.730324,-0.536309,0.391916,-2.486490,1.548976
-0.879450,-1.022683,0.513315,1.271362,0.168027,0.883463,1.066305,1.691751,1.259968,-1.266418
0.288429,0.015155,0.698872,0.855317,-1.834030,0.654665,-0.777956,-1.169968,1.341546,1.871042
-0.454915,-0.377667,-1.406199,-0.507818,1.960072,-2.973878,-0.952888,1.917181,-1.466446,0.235785
0.262160,0.068857,-0.900145,-2.418907,0.968898,1.505633,-1.386771,-0.618859,1.428424,-1.130037
-1.265427,-1.147676,0.300996,1.255120,-1.523107,-0.251694,0.972975,2.318755,0.687026,1.121237
1.375700,1.108341,1.930859,-1.668798,-0.667474,-0.400678,-1.236196,-2.045111,0.534661,1.003655
1.287290,-0.768191,0.806047,1.195273,-1.831662,-0.975332,-1.098537,-0.546694,1.501433,-0.269234
-0.260684,0.169117,-0.292139,0.836280,0.231165,0.342997,-1.298100,0.197677,-1.728245,3.598338
0.591037,0.470826,-1.512695,0.097106,-0.139270,-1.717470,0.318747,1.750811,0.495580,-3.170964
-0.891706,-1.433691,-0.243235,-0.443823,-0.752200,0.124714,-2.877830,0.089862,0.613032,0.974500
0.275199,-0.455117,1.881666,0.047175,-2.663068,0.689888,-2.848106,1.954143,-2.340223,-0.133324
0.759357,-1.607040,-0.187967,-0.233658,2.196319,-1.360736,1.801127,-0.093173,1.740283,-0.515941
-0.848445,1.057735,0.092976,1.496797,-1.397286,-1.128332,1.817918,-0.133094,-0.250994,0.629246
-0.446458,-0.871536,-2.013118,3.059437,-0.093173,0.906401,-2.082422,0.701350,-0.063406,-1.867832
0.887227,-1.718843,0.157765,0.661960,-0.231563,-0.392179,0.522858,0.869304,0.381047,-0.289500
-0.602474,-0.573492,0.661363,-1.340155,-1.521088,0.082257,-2.055509,-0.228281,1.643062,-1.145140
0.510778,0.205583,-0.753985,-3.720201,-2.137820,3.057021,-2.686737,0.987303,0.475988,-0.909215
0.132101,0.634431,-1.583073,-0.444575,1.838179,2.723407,0.078651,-0.509139,-1.491104,-0.848644
0.608909,0.919412,0.690467,0.938099,1.110731,1.768725,0.671808,0.678274,0.362195,0.694808
0.884365,0.999706,0.993771,0.999706,0.980058,0.994488,0.995183,0.948856,0.988237,0.993393
1.000000,1.000000,1.000000,1.000000,1.000000,1.000000,1.000000,1.000000,1.000000,1.000000
0.965209,0.898137,0.846161,0.312899,0.929316,0.578461,0.810069,1.000022,0.753778,0.853904
0.876605,0.842318,0.156521,-0.643903,-0.946110,0.301944,0.704983,2.210618,0.438230,0.280344
0.560587,0.652277,-0.972081,1.682523,-2.257150,0.214105,-0.082645,3.116280,-0.474858,-1.052368
-0.745541,0.170868,-1.478712,-0.115626,-0.529040,-0.343880,0.117831,1.420911,1.012658,-0.954603
-0.250300,-0.342928,0.974115,-0.479742,-1.375193,-1.295699,-0.007055,2.688327,-0.962606,0.339380
-0.398899,0.098565,-1.180774,2.592179,-1.264424,-0.514233,-0.009025,-0.786318,1.047213,1.633080
-0.018694,-1.094498,-0.648609,1.636055,-0.650868,1.358135,-0.035284,-0.380944,1.156290,-1.718527
0.195731,-1.070939,0.399034,-2.411344,-0.331935,-0.145229,-1.490868,-1.283396,-0.340422,-0.322581
1.163253,0.253329,2.542887,-0.742671,-2.154347,0.545074,1.016153,-0.422113,-0.370119,-0.735721
0.314705,-0.515839,0.361474,-2.334059,-0.512139,3.041000,-1.144531,-0.778261,3.008861,-1.328141
-1.122762,0.856871,-0.260393,-0.496097,-0.350867,-0.824811,-1.677109,0.385335,-0.068279,1.429447
0.604019,0.975610,-0.088406,-1.835891,-0.985520,0.686563,0.110788,-2.443105,0.064878,-1.535946
-0.044555,1.078434,-2.093790,1.630170,-0.836128,2.595442,-0.993033,5.204642,-2.122020,-2.470852
-0.004530,0.296152,-0.093326,-1.859868,-0.818309,0.812405,-0.321441,0.352679,-0.661407,1.056260
-0.677141,1.295202,-0.028597,0.769986,0.801594,-0.453970,-1.748519,1.368918,-1.890584,-1.893495
-1.290454,1.462858,0.129341,0.629164,-1.225623,-0.879128,-2.466294,0.733861,1.216540,0.686489
0.501647,-0.092202,0.463807,1.413044,0.377628,-2.211744,-0.343279,1.571084,1.358280,-1.923656
0.778517,-1.068472,-1.601286,0.172056,0.893972,-0.898271,-0.677558,-0.956655,-1.230427,0.037775
0.775537,-1.332907,0.757789,1.390207,-1.736426,0.567479,-1.696668,-0.597059,1.797372,1.044938
0.453498,-0.809759,0.298120,-1.326269,-1.810287,-0.968803,-1.384476,2.051610,-0.263376,-1.211569
1.271492,-1.525485,1.229275,-0.449306,-0.491200,-0.950214,-1.911486,-1.033779,1.324115,0.782249
1.723452,-1.464083,-0.435230,1.071102,0.130064,3.763325,-1.415359,-0.194836,2.863933,0.943574
0.562540,-0.307847,-0.406373,0.263205,0.825224,0.197201,-0.413634,1.299246,0.435560,-0.984819
0.464669,0.402581,1.666660,-2.016546,1.361323,2.215512,-1.765945,0.366026,-0.277256,-1.489490
0.682342,1.754893,-0.303972,0.057057,1.050663,8.179643,0.753647,0.268961,-0.641844,-0.722823
0.973500,0.704322,0.911644,0.984729,0.689770,3.309706,0.979163,0.615356,0.536845,0.993885
1.000000,1.000000,1.000000,1.000000,1.000000,1.000000,1.000000,1.000000,1.000000,1.000000
1.000000,1.000000,1.000000,1.000000,1.000000,1.000000,1.000000,1.000000,1.000000,1.000000
0.921166,0.952557,0.920371,0.666013,0.981678,0.643979,0.899336,0.989787,0.790897,0.402145
0.746397,0.755494,0.231821,-0.447835,-0.344633,0.399022,0.577253,1.066101,0.049704,-0.309048
0.359332,0.493373,-1.421331,0.361910,-2.686182,0.115311,-0.408561,3.033154,-0.954466,-2.770588
-0.539740,-0.082085,0.116528,-0.838300,-1.933779,-0.508766,-0.357991,1.075338,0.520386,-3.781613
-0.365085,-0.749511,1.275003,-1.730399,-0.144975,-0.368398,-0.156781,-0.539227,0.773503,1.351970
0.270798,-0.130686,-0.798171,-0.009375,-0.596252,0.154861,0.819283,0.028243,-0.192699,-1.254694
0.813512,-0.046143,-0.949699,-0.074115,1.313759,-1.366501,-1.461089,1.248787,1.010419,2.477201
-0.451168,-1.833694,-3.577185,-1.855001,1.034644,2.530003,0.099913,2.676400,0.996037,-1.064453
-0.842551,-1.889101,-3.136827,0.093023,0.006203,-0.282606,2.700821,0.449232,-0.048991,1.847020
0.263586,-0.154021,-0.069940,-0.378977,-0.294208,-0.129683,0.438371,1.534059,0.097695,2.302043
1.520933,0.492343,-0.528608,0.686576,1.481746,1.696987,-0.099692,0.850756,-0.872207,-0.777486
-0.682208,-0.588519,0.701810,-0.601973,0.953042,-0.883041,-0.042777,0.277235,1.434691,1.127903
-0.175312,-0.071078,-2.433887,-3.809279,-1.709446,0.154685,0.371447,-0.044545,3.152292,1.010352
0.083887,0.733758,-1.628336,4.367925,-3.118771,-0.459304,0.763665,0.812303,-1.045457,0.313193
-0.540773,1.688468,0.217200,-0.472329,-0.200241,-1.985238,-1.988308,1.299407,0.743131,-0.003276
-0.669753,0.729326,1.291735,0.458610,-0.487746,1.861526,-1.099949,-0.097693,-2.873233,0.280333
0.471324,-0.092338,-0.909696,-0.305718,0.791815,-1.204028,0.739002,0.909080,-0.711549,1.773780
1.081564,0.881078,-0.992852,-0.950742,-0.943331,-1.441351,-0.722810,2.580559,2.004804,-0.206974
-0.001235,-0.039771,-0.336308,0.836578,1.473275,-2.091260,-0.187304,0.395819,-1.574362,-1.076196
1.299484,-2.469772,0.130391,-0.545066,0.319923,-6.107863,-2.305244,-0.023835,1.473960,1.623726
1.574386,-1.797864,0.336142,-2.118750,-0.021647,-4.418874,1.422428,-0.190843,-2.094505,1.475707
-0.079529,-0.878759,-2.004487,0.275666,1.222412,-6.267747,0.435910,0.854498,1.118280,1.581801
0.552240,0.032466,-0.927411,-0.447741,-1.735731,-2.417416,0.664831,0.125099,-0.203016,0.883937
0.854043,0.556853,2.399774,-0.523321,-0.650675,-0.431678,-0.159722,-1.760566,3.339512,-1.394728
0.829075,2.365709,2.826828,0.309172,-0.324915,4.807189,-0.607743,0.703727,-0.623680,-0.545926
1.001737,0.881704,0.412656,0.984901,0.614937,1.997242,0.865784,0.755513,0.811265,0.854049
0.999849,0.999936,0.994245,0.999879,0.999178,0.999933,0.999777,0.999918,1.002222,0.981229
1.000000,1.000000,1.000000,1.000000,1.000000,1.000000,1.000000,1.000000,1.000000,1.000000
0.850534,0.880569,0.552485,0.651731,1.006819,0.709084,0.786416,0.897802,0.792129,0.298887
0.706137,0.673416,0.134257,0.192463,0.757652,0.479630,0.602201,0.824514,0.180009,-0.657653
0.531804,0.591347,-0.797938,0.401047,-1.584464,0.155059,-0.078596,2.479852,-0.702851,-2.792656
-0.584995,0.383802,-0.592079,-0.360692,-1.555494,-0.004939,-0.392951,0.866373,1.351422,1.914146
0.113433,-0.185365,-1.217608,-1.319105,1.818679,0.386393,1.174075,-3.191153,1.588888,1.957459
0.547193,1.134915,-3.966533,-5.299393,-0.429156,0.870140,0.424918,-2.034152,-0.531229,3.307333
-0.302558,1.397698,-3.041309,-1.142045,-1.003327,0.590102,0.054629,-1.222580,-0.208784,-0.465380
0.555723,0.052578,-2.179821,-0.273376,0.833435,-1.372966,0.691796,0.527838,-2.149003,1.521397
-0.105138,-0.704888,0.446495,0.389072,1.246837,0.330676,0.956007,-1.589167,1.559663,-0.853562
-0.757209,-0.990699,-3.539338,-2.192140,0.302338,-0.423148,-1.128987,-1.628833,-1.444247,-0.532166
-0.711248,0.780819,-1.650641,-0.311554,0.416691,2.261941,0.150298,-0.068695,1.526718,1.009158
-0.382011,-1.675880,-0.852762,3.005470,0.861177,-0.354860,2.027690,-1.838066,-0.137197,0.742627
-0.794322,1.860004,-1.077114,1.263211,0.482282,0.456641,-0.200434,-2.410459,-0.154505,-1.890556
-0.363939,1.534073,1.361949,1.010021,0.849510,0.929037,-0.489768,-0.183455,0.469110,-1.455261
0.248598,1.492059,-2.557566,-0.748789,0.915271,-0.730968,0.223211,1.391160,0.693902,1.846896
-1.397968,-0.022954,-1.767893,0.082145,0.704476,0.258201,-0.305932,0.704628,0.674640,-0.075885
-0.038584,0.569007,0.068265,1.383561,-0.041077,-1.200602,-0.366007,-0.160055,0.053300,1.707586
-0.361369,1.953788,0.341728,0.305904,-0.389376,0.401309,0.342198,0.616960,-0.279231,0.348588
0.334392,-1.023156,-0.975084,0.757613,-1.097011,-0.103559,-0.607028,0.402992,2.841410,2.312117
0.626211,-2.048751,0.909131,-2.242804,-0.610392,1.887174,-1.398632,0.358524,0.503329,-1.838823
-0.306195,-0.897471,1.463362,1.209526,0.138516,0.658380,1.454610,-0.199440,1.142249,0.509562
-0.115241,-0.233797,-1.770906,-1.998732,-1.948280,-3.575328,0.051657,1.037613,0.366638,-0.762442
0.006480,0.099100,-1.350767,-3.067570,-0.936563,-4.438519,0.290725,-1.000425,1.039853,1.772290
0.471107,0.463704,-0.148991,0.058667,0.284083,-1.982298,0.845590,-0.907513,-0.791867,0.461766
0.886723,0.639502,3.084619,0.968935,-1.192983,1.739368,-0.814223,0.895207,-1.241850,-1.043779
1.006061,0.740940,2.227622,0.993149,-1.193112,0.740364,0.020702,0.899950,1.007523,0.675281
0.999481,0.999780,0.980268,0.999584,0.997182,0.999769,0.999234,0.999720,1.007618,0.935642
1.000000,1.000000,1.000000,1.000000,1.000000,1.000000,1.000000,1.000000,1.000000,1.000000
0.831698,0.811372,0.169097,0.397609,1.031404,0.930941,0.678853,0.797640,0.960259,0.727697
0.776016,0.594919,0.147395,0.307455,0.496094,0.583890,0.649242,0.842918,0.789633,-0.487475
0.618798,0.626244,1.864254,0.607908,-0.727579,0.141161,0.302563,1.527173,0.125230,0.981769
-0.652843,0.604159,-1.704117,0.440567,2.608277,0.120305,-0.224340,2.928884,-1.196767,-1.512445
0.117495,0.682353,-2.751739,-0.880863,-0.305390,-0.274962,1.610335,1.444019,-0.345972,-1.951644
1.182707,1.931761,-1.975198,-0.672045,-0.100104,1.104458,-0.613742,0.266636,2.484985,-1.801135
-0.910866,0.655063,-0.131449,1.555384,0.477332,1.767746,-0.854012,-1.673987,0.524541,0.250246
0.884848,-1.301336,-2.134550,-1.391464,0.675651,1.151970,-0.378404,-2.763483,0.374723,1.171871
-0.366296,-0.468336,-2.862281,-0.254856,1.078714,0.505482,0.194960,-1.104882,-0.504456,1.184563
0.956557,-1.248349,2.023590,0.850870,1.469247,-1.747422,0.323209,-0.713084,-0.613026,1.406826
-0.225321,-1.240330,-0.662011,-1.029287,1.443967,0.802889,0.002774,-0.392230,-0.146364,-2.149651
-0.910920,-1.832613,-0.748760,0.392294,2.428190,-0.312499,0.460663,-1.116342,1.219538,1.308129
-0.573946,0.780808,-0.471595,-1.079870,-1.126319,0.629448,-0.377826,-1.433800,0.065194,1.616863
-2.548575,2.245431,-1.525430,1.188232,0.325956,-0.596124,-0.910743,-1.881834,0.620800,-0.093286
-1.503505,0.897605,-0.344016,0.174847,-1.061715,-0.465262,1.393254,-1.143061,2.035706,0.076758
-2.185486,0.626313,0.784948,1.202615,-0.163202,-1.980702,-1.464505,0.679160,0.588863,-0.544109
0.620569,0.245971,-0.690117,1.076207,1.693610,0.114781,-0.719218,-0.402660,-2.552119,-0.662950
-1.335099,-0.854459,-0.807658,0.009573,1.952756,-0.643075,0.388529,-1.480937,-0.634614,0.160643
-0.085728,-1.634016,-0.516896,-1.467490,-0.006767,-1.425333,-1.280683,-0.763886,-1.996062,0.863350
-0.202288,-1.252362,1.126865,1.879647,2.340724,1.024186,1.383439,-0.305129,-0.108566,-0.978455
-1.490321,-0.909804,-2.791831,-1.437515,0.809822,0.921847,-0.302591,1.110958,-0.291862,1.967306
1.097822,-0.516537,0.733018,-0.520261,-1.698493,-3.247704,-1.345847,-0.020281,3.073767,-0.810845
0.887935,-0.315082,1.805806,-1.190087,-2.151642,-3.996416,0.059553,-3.027279,-2.489703,-0.577828
0.689650,0.005417,1.116434,-0.423230,0.170236,-1.935330,2.064581,-0.021394,-2.245117,-2.157465
0.636426,0.515692,0.658122,0.955809,-0.826899,0.357343,1.022398,0.267991,0.720940,-0.365742
1.000526,0.856564,1.879576,0.999028,-0.284935,0.969775,0.500062,0.939486,0.976181,0.914994
1.000000,1.000000,1.000000,1.000000,1.000000,1.000000,1.000000,1.000000,1.000000,1.000000
1.000000,1.000000,1.000000,1.000000,1.000000,1.000000,1.000000,1.000000,1.000000,1.000000
0.924222,0.911546,0.604601,0.715089,1.015684,0.985733,0.850154,0.903206,0.994755,0.911058
0.834764,0.795250,0.172986,0.390003,0.945552,0.947055,0.684382,0.805289,0.984598,0.711932
0.609038,0.749796,1.737264,0.301719,-0.014822,0.419139,0.482365,1.135286,0.775074,1.627487
-1.075056,0.626150,-0.361993,-0.283768,2.988601,-0.168738,-0.456460,0.158983,-1.562420,-0.007678
1.136948,1.049463,-1.155484,-1.646894,-0.655391,-2.795003,1.963350,1.041890,-1.622201,-0.035499
1.376026,0.339355,-0.094045,1.501252,1.259688,-0.831224,1.113590,0.306218,-4.014979,0.332429
1.070667,-1.485442,1.986939,-0.081297,2.596735,0.048282,2.097069,0.290633,-0.075007,1.669392
-0.450203,0.313945,0.297626,1.498290,-1.292349,-2.139489,0.672143,1.645093,-0.370962,-1.125053
-1.019337,0.580380,-0.541096,1.525064,1.367172,1.979219,-0.017298,0.628378,-0.891783,-1.239380
2.302286,-1.967897,-2.463111,-1.694593,-0.037985,1.751078,2.006948,0.225512,-0.410871,0.173816
0.417038,-1.064213,-0.257924,1.461336,0.008536,-1.385971,-0.319963,1.142567,2.287886,-0.346583
0.832760,-0.360844,1.698654,-0.966042,1.939251,3.903293,0.901703,-3.298108,0.083293,0.629810
0.800389,1.347757,-1.300341,1.615435,-1.884595,-1.647502,-0.552823,0.483753,-0.147134,-0.149275
-3.159457,-0.468748,-0.193528,-0.519200,-0.319671,-0.099058,2.227806,-0.714575,0.437148,0.210327
-1.857508,-0.179456,0.900360,1.279669,-0.359654,-0.578551,0.951740,-0.687354,-1.075846,1.894623
-1.034374,-0.805875,-1.829024,-1.705493,1.163432,0.179097,-1.655399,1.287562,0.974972,-0.538282
0.696381,-1.772828,1.483671,-1.080953,0.313009,0.568983,0.897646,-0.007308,1.627584,1.190328
0.788624,0.042262,0.299972,1.717691,0.366331,-0.496773,-0.693308,-0.688260,0.119195,-1.071432
-0.592291,-2.044397,-0.735137,-2.217277,1.578305,1.089173,-2.133218,0.703692,-0.284195,0.105178
0.183873,-1.143208,-1.723562,2.801696,-1.117119,-1.671187,1.366404,0.950390,-1.038345,0.712871
-0.206175,-1.133496,-1.202250,-1.213081,1.326389,-0.485693,0.280255,-1.095962,-1.332013,-0.575318
1.772624,-0.461187,-0.851136,-1.506590,1.418110,1.463896,1.980142,-1.460533,-0.839294,1.450354
0.794933,-0.228215,-1.155232,1.429841,-1.062853,-1.358022,-0.466323,0.089951,-0.945468,-0.086594
0.725141,0.381151,-0.189591,-1.024573,-1.137542,1.109041,1.121550,2.393585,0.610561,-2.731118
0.748364,1.101743,-2.012834,0.790507,1.844990,-0.631377,2.209542,1.807738,-1.256215,0.393087
0.999524,1.140484,1.304436,0.998642,0.639550,0.751000,0.733379,0.976590,0.823584,0.998708
1.000000,1.000000,1.000000,1.000000,1.000000,1.000000,1.000000,1.000000,1.000000,1.000000
1.000000,1.000000,1.000000,1.000000,1.000000,1.000000,1.000000,1.000000,1.000000,1.000000
0.996242,0.995614,0.980393,0.985872,1.000778,0.999293,0.992570,0.995200,0.999740,0.995590
0.884767,0.865491,0.398731,0.566746,1.023850,0.978305,0.772134,0.852809,0.992024,0.864749
0.533347,0.781761,1.575962,-0.295532,-0.427221,0.463343,0.458940,0.620264,0.860013,-0.272028
-0.329633,0.620691,1.521934,-1.426336,0.972013,-0.646027,-1.123244,-0.295030,-0.172174,-0.705162
1.263236,0.043985,0.462694,-1.174561,-1.513316,-0.725705,0.521381,-1.413990,-2.779406,0.973487
0.181604,-0.661068,2.086844,-2.893189,1.391864,-0.767852,0.072814,1.222806,-0.166660,1.035961
0.733373,-1.629377,1.732117,-2.180896,0.513819,-0.909223,0.070492,-0.901837,-0.037136,-2.340440
1.142026,1.279289,1.231794,-1.663589,0.334865,-0.121839,0.929278,-1.159811,-1.214369,2.308264
0.691292,0.763771,1.751849,0.521064,1.651786,-1.081676,1.071298,-0.687564,0.825647,-0.907514
0.634046,-2.270431,0.539066,-1.003800,-0.882747,2.046041,-0.304256,-0.700497,0.204687,0.498173
-0.797941,0.713771,0.791146,1.179293,1.189259,-2.368042,-0.836457,-1.769320,-0.546223,0.489640
1.502516,-0.575059,-0.763987,0.345271,1.130606,0.634823,-0.127525,1.714017,-0.115130,-1.465119
0.322935,1.543848,0.165402,-0.734202,0.431901,-1.623603,-0.379869,-3.213677,1.547254,0.252658
-3.829233,2.310733,0.288844,-0.446581,0.147351,-0.145428,0.533111,0.190158,0.228734,0.825012
-0.585457,1.582205,-0.220831,0.205077,1.123845,0.227242,0.493238,-1.853602,0.191835,-1.275761
-1.031664,2.318646,-0.650175,1.775932,0.063177,-1.172977,0.957010,-2.163379,-0.278032,2.766438
-1.158663,0.581258,-1.174499,0.154676,0.069246,-1.530302,0.759944,2.359191,-0.251049,0.775496
-0.649832,-1.177850,0.238497,-2.256485,-0.790784,0.064776,1.418129,-0.213876,-1.389688,-0.186386
-1.474922,-2.764616,0.178794,1.302427,-0.168449,0.463718,-0.113646,0.231456,0.269458,0.844466
1.813725,-1.224552,0.717115,-1.853632,-1.260010,0.626250,0.156950,1.239052,-1.642544,1.539249
-0.014195,-1.125314,-0.199010,-0.035975,-1.575004,0.603789,1.739991,2.302315,-0.552352,-1.271779
0.478477,-0.163156,-1.435344,2.922585,0.757289,-2.191082,0.117174,0.567804,-0.680987,1.257368
0.890057,0.053861,-2.400545,1.414048,-1.334008,1.372242,0.549799,1.208744,-0.465155,-2.706746
0.864507,0.553372,-1.603916,1.415233,-2.267020,2.252830,-0.189572,-0.168628,1.779335,-1.392426
0.402035,0.981912,0.710223,0.551666,-0.031031,-0.634490,0.772178,0.783554,-1.026879,0.483760
0.996178,1.054319,2.910678,1.336516,-0.087370,0.274358,-0.227492,0.856058,-0.199234,0.905672
0.999988,0.999988,0.996469,0.999988,1.000622,0.999775,0.999750,0.999968,0.956446,0.969876
1.000000,1.000000,1.000000,1.000000,1.000000,1.000000,1.000000,1.000000,1.000000,1.000000
1.000000,1.000000,1.000000,1.000000,1.000000,1.000000,1.000000,1.000000,1.000000,1.000000
0.909191,0.969741,0.613093,1.116955,0.906975,0.885591,0.983938,0.808474,0.995113,0.932410
0.436624,0.851851,2.675703,-0.236278,-0.601903,0.410086,0.732034,0.496201,0.893367,0.079040
-0.615562,0.726190,0.738231,1.081892,-2.692314,0.295171,-0.534026,2.648840,0.416815,0.540545
0.179705,0.102062,2.295792,0.357686,1.547315,-0.008628,1.081997,-1.642669,-1.259195,-0.850236
0.054560,-0.151989,-1.898451,-0.347198,-1.272158,-3.019068,-0.253296,0.846322,-0.439431,0.147034
1.653687,-0.667155,-0.844232,-1.768137,-1.136390,-3.960671,-2.875823,-0.233976,0.351285,-0.010695
0.609974,-0.127892,-0.103114,-1.854368,3.269831,-1.723777,0.112780,0.368288,-2.811047,-1.795823
0.150217,-0.460146,-0.698660,-0.740439,-1.286402,0.754296,1.269985,-0.906771,-0.929794,0.734096
-0.126047,-1.213379,1.575454,-0.923890,1.285281,0.490388,0.767084,0.974392,-0.868961,0.191454
-0.033861,-0.278558,-0.544118,-0.076722,0.204418,-0.094205,2.161908,-2.122446,1.561224,-0.010530
-0.335426,1.067530,1.838052,1.514204,-0.508685,-0.004935,-1.818407,0.189184,-0.274918,1.378822
-3.051896,-1.290139,-0.457797,-0.689840,-0.273371,1.287352,-0.480504,-0.227944,1.902049,0.509693
-4.225077,1.492868,0.024422,1.211020,0.305633,-1.420242,0.490868,-0.497231,-0.619324,-3.195366
-0.766921,-2.012706,1.404386,-0.685876,2.107263,1.040585,-1.651840,0.472615,0.352371,0.384573
-0.189728,0.058525,-0.813597,-1.732405,-0.250111,-0.681325,-0.383837,-0.586464,1.638747,0.069255
0.085535,0.226331,1.182460,-0.660620,0.686092,0.224296,-1.747435,-0.264225,-0.799937,-0.197330
-0.688006,-0.811556,-1.696065,1.051038,1.195361,-0.690140,0.586602,1.260138,-0.840075,-0.842257
1.319412,-1.107571,0.908524,0.365901,0.802264,-0.937789,-0.267377,0.231877,-0.297021,-1.916188
-0.166589,-1.389115,-0.184780,0.799057,1.514694,0.413269,-0.585478,1.619880,2.235407,-2.116580
-0.722892,-1.169107,-0.306530,-0.561855,1.347483,0.469910,-1.056198,-1.778266,1.564580,0.540857
-1.261403,-0.291145,0.464564,0.184392,0.212952,-0.561028,0.469888,-1.840260,-1.289544,-1.298368
0.903703,0.026782,-0.234880,0.750246,1.623091,-0.845909,0.724841,0.362360,0.458809,-1.614826
0.473901,0.473652,2.771696,0.583107,-0.348019,1.611242,-1.683909,-1.674119,-1.270466,-2.207677
-0.000391,0.815436,3.129313,0.236148,-2.820795,-0.351080,0.269935,0.622987,-1.718781,0.438547
0.997219,0.997769,2.711213,0.995605,-0.517461,-0.294376,-0.500182,0.913664,-1.047005,-0.191159
0.999978,0.999978,0.993527,0.999978,1.001141,0.999587,0.999541,0.999942,0.920151,0.944773
1.000000,1.000000,1.000000,1.000000,1.000000,1.000000,1.000000,1.000000,1.000000,1.000000
1.000000,1.000000,1.000000,1.000000,1.000000,1.000000,1.000000,1.000000,1.000000,1.000000
0.864577,0.935660,0.612446,1.258124,0.950077,0.757317,0.995494,0.795300,0.986665,0.977637
0.384087,0.724245,-0.110181,-0.130763,0.456526,0.282138,0.401368,0.081439,0.438782,0.390225
0.029458,0.590321,-1.990976,1.819534,-1.677481,-0.701772,-1.383485,1.580405,0.303925,-1.305887
0.730833,0.489170,0.446241,1.871829,0.023412,0.999165,0.866936,0.790944,0.403995,0.441123
0.730400,0.080515,1.817601,0.187122,-1.769396,1.305473,-0.060564,1.167747,2.031730,-0.584691
0.201599,-0.595230,0.722667,-0.083565,1.838220,1.153159,0.100039,1.011418,-0.278461,-0.111025
-0.331701,0.189644,-1.029610,0.954861,1.593451,0.057194,1.414965,0.413921,1.733367,-0.018846
1.052428,-0.170606,1.705083,-0.485387,0.631513,-2.489129,0.750891,-1.187804,0.815599,1.902669
1.775513,-1.549757,-0.888214,-1.101422,-1.911223,-0.405814,-0.390402,-0.888667,1.246442,-0.035139
1.073149,-1.076862,1.698118,-3.372198,-0.413219,0.458062,3.452413,0.896631,0.005914,-1.125139
0.312060,0.841202,0.649452,-1.138422,1.666550,-2.578177,1.370712,0.365031,0.946087,-0.833035
-1.153926,0.718441,-0.217870,1.083513,-0.033025,-0.587202,-0.231186,0.022965,-0.827830,1.195685
0.243449,1.156628,-0.178836,-2.617220,0.441899,-2.335499,1.313238,-0.141802,0.894084,2.276513
-0.792787,-0.717414,0.582094,1.315500,-1.105381,-0.864690,-2.312359,1.082626,-0.340379,0.437233
-1.555833,-0.131830,0.084163,1.321683,2.892320,0.205868,0.523395,0.673270,-1.154311,-1.423151
1.157244,-1.564452,0.165658,0.363786,0.155346,0.971553,0.967505,0.116063,0.174404,-0.561246
-0.290707,-0.816077,1.220897,0.648373,0.221787,-0.302581,-2.352611,0.046503,-0.102296,1.381043
0.445301,-0.192458,-3.066803,1.540867,-1.423395,0.472288,0.460085,-1.955298,-1.878543,0.407967
-1.552390,-1.263894,1.006004,-2.810069,-0.638668,-0.473350,2.598619,0.268836,-0.301677,0.599379
0.146029,-0.969304,0.839492,1.817833,-1.903152,1.126613,-1.346369,-0.619541,-1.649183,-0.652238
1.239871,-0.545397,0.897817,2.013396,-1.089238,0.210607,0.623368,-1.326955,1.946303,-1.142166
-0.080756,-0.124444,0.127589,-1.662839,1.834903,0.567079,0.760337,-0.265814,-0.348603,-1.389492
-0.121767,0.350903,-0.582720,-0.501918,-0.518124,1.694921,-2.917209,-0.849970,0.935970,-1.477777
-0.156325,0.709482,0.171249,-0.297123,-0.376566,0.131099,0.187923,0.746708,-1.431467,0.309069
0.994748,0.988054,2.064944,0.984697,-0.660866,-0.417989,-0.454950,0.878460,-1.074938,-0.357045
0.999744,0.996813,1.005705,0.998757,0.985894,0.996947,0.944389,0.966368,0.916469,0.902794
1.000000,1.000000,1.000000,1.000000,1.000000,1.000000,1.000000,1.000000,1.000000,1.000000
1.000000,1.000000,1.000000,1.000000,1.000000,1.000000,1.000000,1.000000,1.000000,1.000000
0.900460,0.962165,0.866914,0.712226,0.387213,0.954415,0.985629,0.995992,0.761851,0.928269
-0.026529,0.374518,-3.165127,1.248958,0.137292,-0.669116,0.297639,-0.627458,-0.418103,0.819876
-1.114280,-0.134204,0.430747,1.868051,-3.840097,-1.671687,-0.408703,0.484570,-0.922780,-1.706972
-0.011803,-0.637184,-0.273699,-0.152629,1.151195,1.993703,-0.466616,1.110848,0.559544,-1.521122
0.129009,-0.775034,0.881343,-2.453005,1.351087,2.231043,-1.577941,-1.422754,-1.785954,1.157294
1.518603,-0.228250,2.962407,0.165879,-1.448538,1.581000,0.981106,-1.441763,-0.312676,-0.193779
0.770489,0.554486,-1.043293,-0.926985,0.327089,-0.994635,0.725319,-2.049371,0.219518,-0.624127
-0.711216,-0.545192,-0.227445,-0.692737,-0.775383,-2.387457,1.341580,-1.864489,1.923228,-0.166405
-0.021625,-0.568062,0.914723,-0.552465,-0.523016,-1.998283,1.089612,-0.391333,1.443425,-0.323370
0.416638,-1.436052,-1.534397,1.100504,-3.063223,-0.156484,0.262985,-1.730183,-0.284438,0.526056
0.230062,-0.050554,1.715534,-2.017843,2.939233,-1.817603,-0.166567,0.128417,0.637430,-0.048657
-2.784007,1.200456,0.663872,-3.205789,1.441678,1.369418,-0.041674,-0.448848,1.657030,-1.501602
-0.223062,0.973383,0.092551,-2.676747,1.458885,-1.406822,0.882632,1.524292,-0.972027,-1.265276
-1.148333,-0.076005,1.019474,-0.864444,1.139490,1.245412,0.193957,-0.830548,-0.027854,-0.543419
-0.608060,-2.339305,0.001289,-0.331895,-2.143409,-0.397258,1.377819,-1.390606,1.073149,1.358894
-0.090085,-2.393201,0.184042,0.350916,-0.527183,0.682109,1.058270,0.775634,-0.207008,1.605354
0.099056,-0.414231,0.714801,0.041225,-0.697970,0.115571,1.240146,0.530409,-0.417022,-0.530831
-0.682608,-0.055850,0.578366,2.308537,2.285086,-0.471766,0.456705,-0.659606,1.251501,0.033965
0.368419,-0.171855,-0.278571,-1.101642,1.310179,0.155578,0.197014,-0.490755,-0.023357,1.094560
1.749121,-1.142616,-1.112113,2.178018,-0.723296,-1.199762,-0.794586,-0.137776,-1.111314,0.353987
-0.366630,-0.983653,1.491382,0.513363,-2.354541,-1.924493,0.005918,-0.759040,-0.211022,-1.400962
-1.286301,0.071600,-0.504200,-1.986186,-1.636187,-0.314123,0.104731,-1.037804,-0.757031,-1.327115
0.274299,0.159892,2.478231,0.700438,-2.099583,-0.453771,-1.663734,2.096945,-0.301194,-0.268260
0.514479,0.820587,1.552904,-0.565135,0.639700,1.359698,0.418763,0.908911,-0.242795,0.621745
0.998193,1.001152,1.091152,0.982596,0.628170,0.788417,0.551784,0.871288,0.364644,0.473520
0.999432,1.325154,0.946662,0.853246,0.993522,0.984495,0.895929,0.889843,0.466920,0.854120
1.000000,1.000000,1.000000,1.000000,1.000000,1.000000,1.000000,1.000000,1.000000,1.000000
1.000000,1.000000,1.000000,1.000000,1.000000,1.000000,1.000000,1.000000,1.000000,1.000000
0.743629,0.893245,0.633414,-2.213076,0.046080,2.398057,0.970995,0.993432,0.717981,0.518666
-0.375721,-0.230487,-1.523528,-0.369481,-0.207978,0.428650,0.629213,-0.098456,-0.716211,0.994015
-0.537214,-0.721296,1.794188,-0.194251,-2.493252,1.328446,0.439638,-1.407550,0.591205,-2.207235
0.003340,-0.922032,1.802221,2.006932,-0.491728,-3.591321,0.103098,-1.711142,-1.258403,-3.179712
0.699193,-1.031813,-1.657310,-1.006919,2.784847,1.327436,-0.337739,-1.061315,0.157443,-0.974049
0.308039,-2.538650,1.165296,0.186789,-1.396050,0.286988,-2.469583,-2.476331,-1.197773,-0.753884
0.825324,-1.062635,0.430266,1.625046,-3.768222,-0.295890,0.345162,-3.533164,-0.784112,2.313040
0.094632,0.182369,-0.814992,-2.892052,0.204415,1.122966,0.495809,-0.387909,0.021436,0.152364
0.619418,1.808727,0.343963,1.239306,0.644629,0.495878,1.960832,-0.104414,-1.412818,0.170245
0.676338,-0.919658,1.465228,-1.788806,-0.360185,-0.004746,0.346239,-0.411730,1.209760,-0.478594
1.805774,-1.367214,0.478874,0.884615,-1.686730,0.139380,1.951776,0.985984,0.036955,-0.870337
-2.302543,-0.070337,-0.560318,2.318523,0.673931,1.456884,1.062089,-0.294326,-1.429578,1.329073
-1.096255,0.088933,0.780333,0.127772,-0.314297,0.666587,0.535404,-1.763801,-0.377746,1.024984
-1.993775,1.257592,-0.190250,-0.651640,1.769219,0.545493,0.276784,0.592566,0.428373,-0.111336
0.633185,1.121639,-0.982982,0.259248,0.045684,-1.317884,-0.339899,0.106331,0.493599,-0.450097
-0.647238,0.074863,0.030529,0.288247,-0.400787,-0.750771,0.035036,-0.657915,-0.374484,0.361694
-0.396411,1.850379,-0.761267,-1.177839,-0.981763,0.441488,-0.212153,-0.076802,-0.996110,-1.632021
0.064628,2.242008,-0.721711,-0.121785,-0.853185,1.502009,-0.737787,-1.969262,0.266083,0.209332
0.399206,1.471525,0.990179,0.098692,-1.120240,-0.209946,1.286181,-1.410710,-3.065770,-0.328353
-0.286785,-1.059641,1.241524,-1.658595,-0.830249,0.962975,-0.262573,-0.907411,1.945180,-1.259122
-0.675283,-0.245576,0.911525,-0.485908,-2.415948,1.155705,0.217994,-1.965906,0.129647,-0.070312
-0.955294,0.688838,-1.638688,0.076150,-1.762700,0.809355,-0.034527,-0.643248,1.259807,-2.174005
-0.360504,0.709485,-0.100080,0.315429,-0.344442,0.959989,-1.050322,1.224862,-1.905697,0.979078
0.922712,1.022699,1.162013,-0.092721,0.845986,0.512203,0.280626,0.964695,-1.179152,0.919864
0.999366,0.983392,1.033185,0.979243,0.990368,0.877476,0.886695,0.997720,0.790424,0.990223
0.999711,1.142169,0.957646,0.933762,0.999554,0.988727,0.935381,0.925043,0.783393,0.940209
1.000000,1.000000,1.000000,1.000000,1.000000,1.000000,1.000000,1.000000,1.000000,1.000000
1.000000,1.000000,1.000000,1.000000,1.000000,1.000000,1.000000,1.000000,1.000000,1.000000
0.822276,0.732149,1.424179,-0.195652,0.771276,1.376784,0.976456,0.971464,0.625075,0.219699
-0.074953,0.018320,-1.704921,2.188909,0.354883,-0.143046,0.810572,-0.260827,-0.994726,0.954145
-0.222854,-0.808885,0.693570,-1.565847,-0.216812,-0.193095,0.301497,-0.812829,0.123567,-0.347417
0.037005,-1.606178,-1.835644,3.236676,-0.945994,0.155892,-0.642133,-1.423556,2.183506,-1.056295
-0.567650,-0.358844,0.874999,1.161423,-0.114563,-2.020092,-0.848614,-1.385264,0.110212,0.578507
-0.510939,-1.819104,0.096970,0.544822,-1.365579,-0.385131,-1.065570,-0.376313,0.451130,2.000794
-0.262528,-1.430088,1.817394,1.915236,-0.411734,1.056150,0.472308,0.256081,-0.733392,-3.732119
-0.528259,0.360661,1.810544,0.763015,0.709760,1.249724,-0.190077,0.330102,1.469892,0.048568
2.151360,1.020296,-1.049659,-1.961021,-3.885941,-0.693520,1.471104,-0.682542,0.408391,-1.861556
0.075265,1.146237,2.024336,0.101485,0.035349,0.665318,-0.724876,-0.199507,-0.114672,0.565002
1.683342,0.434989,-0.369551,-0.487414,0.233600,-1.256106,1.254947,0.491652,0.302952,-1.720915
1.146087,0.975275,1.277931,-0.173973,-0.552757,0.442821,0.334540,-0.965563,-0.531906,-1.859747
-1.485734,-1.565661,0.369628,0.188017,-0.671664,-2.121827,-0.056125,-0.479971,-0.530542,-1.000549
-0.426975,-0.590388,-0.315226,0.629230,1.859679,-0.821602,2.199272,1.835348,-1.788416,-1.774686
-1.165765,-0.731044,1.677614,0.213270,0.366956,0.060226,1.227500,-2.864473,-1.646605,-0.236939
-0.691487,-1.033005,-0.973480,-0.600836,0.107766,1.409799,-0.502260,0.156234,-0.121269,-2.273000
-0.778077,1.435033,0.970389,0.677877,-0.587000,-1.213049,0.010144,-0.230558,-0.717401,0.936469
-0.922895,-1.222095,0.272138,-1.054344,-1.014261,-1.232469,0.016605,-1.671217,-0.277146,0.477922
-1.071896,-1.195494,-0.068680,1.252809,-0.038045,0.829664,-0.607336,0.575937,2.101761,0.279609
-0.941394,0.817801,0.006702,0.811661,0.014430,-0.900887,-0.266903,-0.379508,0.219126,-0.976595
-0.532210,0.607454,-0.926712,0.516405,-0.577410,-0.208612,0.491383,-1.257135,-0.326342,1.922664
-0.794336,-0.514083,0.660629,-1.208141,-0.875232,2.037499,-1.225722,-0.546274,0.583236,-0.821702
-0.881498,1.790967,-0.405185,-0.808963,-0.562326,0.041475,-1.149200,0.977606,-0.137598,1.460268
0.828035,0.866592,0.116927,-0.449651,0.976774,0.044650,0.193334,0.966587,-0.217046,0.706475
1.003863,0.866842,0.914344,0.870184,0.998575,0.289443,0.478979,0.988237,0.171629,0.944353
1.000000,1.000000,1.000000,1.000000,1.000000,1.000000,1.000000,1.000000,1.000000,1.000000
1.000000,1.000000,1.000000,1.000000,1.000000,1.000000,1.000000,1.000000,1.000000,1.000000
1.000000,1.000000,1.000000,1.000000,1.000000,1.000000,1.000000,1.000000,1.000000,1.000000
0.823079,0.577563,1.279477,0.848505,0.836239,0.623804,0.990229,0.966301,0.749870,0.082014
0.528788,1.375129,0.482764,1.316167,0.503232,-1.410127,0.865872,-0.060443,-0.681239,-1.383330
0.359311,0.776422,-0.115849,2.227459,0.068540,-0.995885,0.520466,-0.438085,-1.565031,-0.318403
0.222898,0.453922,-0.394359,-0.989655,-0.789313,1.964538,-0.965884,-1.035562,-2.170011,-1.009598
1.172587,2.513426,0.425624,0.517672,-1.961171,1.237669,-2.111720,-1.860161,-0.987381,-0.280836
0.073127,3.114737,-1.010042,-0.883226,-2.778917,-0.779456,-0.343209,-1.215756,-0.206350,1.288303
-0.117169,-0.266535,-2.993667,-1.067505,-1.099302,2.287024,1.162351,0.125043,2.094653,-0.803703
0.480516,-0.230193,0.635260,0.255753,-1.012857,0.275534,0.505400,0.772460,-1.457965,-1.771705
1.924597,-0.316741,0.028278,0.014760,1.373090,-0.951321,-0.947008,-1.225313,-0.050672,2.158898
0.766145,0.885640,1.191283,-0.091882,-1.687326,1.731706,0.002716,1.151299,-2.259367,-2.704206
0.058511,-0.823610,-0.019588,-1.011340,-2.042649,-1.562207,1.862398,0.472313,0.421605,1.305461
-0.927291,0.279481,-0.067498,0.170001,-0.319166,0.746651,1.641596,-0.043761,0.186259,-0.071918
0.083843,-0.739309,-0.415883,0.208491,0.364911,0.136061,-0.477232,-0.230289,1.091009,0.694507
0.083582,2.467821,-1.506562,-1.006794,-2.397451,0.029707,-0.276131,-2.490223,0.596316,0.332900
0.311209,1.461321,-0.250693,0.481343,-0.483059,-0.527106,0.203139,-1.502714,-0.707687,-0.126723
-1.966836,-0.070388,1.660406,0.496207,0.478864,0.111069,0.365255,-0.271765,2.263546,-0.011363
-0.944459,-0.974707,-2.389680,1.192291,-0.306203,-1.857930,3.987166,-0.628966,1.275303,0.099699
-1.207250,-1.393577,1.965531,-0.078582,-0.477747,0.649354,1.577063,-0.766947,-0.920361,0.617766
-0.630241,0.963360,0.692406,-1.316301,1.765437,1.048112,0.941421,-0.221029,-1.890729,-0.332030
0.344389,1.715545,1.441255,0.748697,1.277437,-0.617093,-1.509158,0.012817,1.813722,-1.588665
-0.194546,-0.570004,-0.156290,0.294170,1.600325,0.445412,0.332799,-1.156118,-0.305366,0.825441
-1.213742,0.190284,1.843517,-0.944660,-0.596761,0.779632,-1.070521,-1.025594,0.077825,2.507957
-0.206447,2.099936,0.695916,-1.682672,-0.035476,0.436325,-0.413822,0.226136,-1.729575,-0.029914
0.857175,2.239150,0.722195,-0.025676,1.004993,-0.541048,0.682796,0.935366,0.425000,0.100458
1.009831,0.992914,0.418840,0.717391,0.998518,0.501970,0.765494,0.967630,0.764957,0.913008
1.000000,1.000000,1.000000,1.000000,1.000000,1.000000,1.000000,1.000000,1.000000,1.000000
1.000000,1.000000,1.000000,1.000000,1.000000,1.000000,1.000000,1.000000,1.000000,1.000000
1.000000,1.000000,1.000000,1.000000,1.000000,1.000000,1.000000,1.000000,1.000000,1.000000
0.945486,0.902245,-0.174413,0.896287,0.995656,0.785519,0.997402,0.990338,0.923176,0.623919
0.967145,1.104572,-1.708773,0.640838,0.804079,-0.720578,0.953528,0.178585,0.181623,0.058582
0.382405,2.557858,1.073953,0.646549,0.239915,-0.029728,0.754109,-0.684288,-2.687499,-0.703758
0.980097,0.454068,-1.090756,0.182397,-0.775809,-1.089809,-0.297732,-0.637538,0.481257,-0.814512
0.905565,1.450055,0.545723,0.737715,-2.355773,-0.372672,-1.087984,-1.368212,2.520915,-2.385993
-2.044837,2.587762,4.050494,-1.432995,-0.309085,2.076799,-0.506001,-0.945472,-0.077310,-0.267241
-1.152258,-0.146157,-0.253034,1.112238,-0.645662,-2.114728,2.657663,-0.698729,-0.558281,2.156186
0.781097,-0.023030,1.962239,0.190443,-0.979243,-1.215797,1.077481,-0.188156,-0.756323,-1.864895
0.687601,-1.346647,-0.625665,-1.122875,-1.753186,-0.050634,2.662605,-0.662658,0.807203,1.347708
-0.190414,-0.329284,0.283002,1.509703,1.021197,0.636308,-0.217757,-2.514788,0.034007,0.310917
1.070709,-0.779206,-0.518362,0.201421,-2.256737,1.433577,0.336108,1.355625,0.952262,0.114812
0.988353,-1.194930,0.866745,-0.049857,0.909995,-0.390128,1.081292,-0.058589,0.456510,-1.284808
0.684847,0.920105,-0.145870,0.027175,-1.569527,1.023803,0.360562,-1.310597,-0.984216,0.378134
0.920073,-0.282096,-1.032719,2.900381,0.062555,-1.192381,2.436010,1.304875,0.523661,-2.007943
-0.504255,-1.119760,0.097289,-1.553701,-0.338812,0.502708,-0.482260,3.197960,0.258039,-1.807640
-0.804752,2.075115,0.161535,1.586080,0.543127,-1.405725,-1.274809,-2.214616,-1.537897,1.058959
-0.972567,-0.179755,2.405376,-2.183392,1.787268,2.997012,-1.301073,-1.926159,-0.973586,-2.100706
0.315923,0.797643,-2.439222,0.007138,0.182331,-0.356257,-0.225533,-0.959150,2.210069,-0.176420
0.539295,0.793908,-0.120539,1.934754,-0.471056,-0.801680,0.501638,-1.629074,-2.031477,-0.717127
-0.094242,0.424173,0.973086,1.517816,0.372252,0.852413,-0.762828,-0.884100,-1.357170,-2.016190
-0.030040,-0.814186,1.133725,-0.798446,1.049541,2.516981,-0.723030,-2.860621,2.302111,-1.002355
-0.800363,0.350438,-0.486675,-0.595597,1.075810,1.366455,-0.491901,-1.018982,0.817631,1.182996
0.055898,1.566811,0.456898,0.418505,0.889832,-0.187556,-0.053393,0.732489,-1.365006,-0.340510
0.919477,1.799343,0.902768,0.733879,1.015394,0.236458,0.901837,0.938417,0.854562,-0.363870
1.005652,0.999313,0.752407,0.989293,0.998844,0.786758,0.915094,0.977463,0.991914,0.919217
1.000000,1.000000,1.000000,1.000000,1.000000,1.000000,1.000000,1.000000,1.000000,1.000000
1.000000,1.000000,1.000000,1.000000,1.000000,1.000000,1.000000,1.000000,1.000000,1.000000
1.000000,1.000000,1.000000,1.000000,1.000000,1.000000,1.000000,1.000000,1.000000,1.000000
0.999279,0.999516,0.270832,1.002220,0.997767,0.950133,0.999505,0.999432,0.998915,0.997161
0.938944,0.981440,-0.499694,1.771703,0.409259,0.518925,0.976252,0.873215,0.365095,0.107261
0.232812,0.827327,0.810599,3.335302,-0.109507,0.404145,0.910936,0.245078,-1.715464,-0.978938
0.392123,-2.125186,-0.260212,-1.397206,-0.800106,0.832275,0.682655,-0.124982,1.272772,1.693319
0.246082,-0.967948,1.209864,1.160389,-1.428475,-0.179788,-0.116424,-0.334741,-2.051929,-2.121764
-1.002566,-0.632465,-0.225085,1.876787,-0.513888,-0.847756,-2.081593,1.202967,-2.037318,-1.321621
-0.994289,-1.226138,-1.411451,-0.564982,1.193914,0.631131,-2.076224,-1.168484,1.247806,0.653974
1.015727,0.335739,-1.812751,0.201867,0.843751,0.755968,-0.870494,-1.514543,-1.299729,-0.528211
2.093789,0.194280,-0.464229,0.750362,-1.685024,0.293637,-2.211622,0.350711,0.592288,-1.981707
0.547734,-0.858289,-0.786740,0.785466,-0.191878,-0.744922,-2.550665,-0.559457,0.998826,-1.414968
1.568101,0.454314,0.892739,-1.690553,0.043185,1.433599,-1.782482,-1.013506,0.056208,-1.360610
1.383984,0.454312,-1.665964,0.130061,-1.306147,-1.840315,-0.232898,-0.099759,2.307585,-0.423668
0.291887,-1.523791,0.881286,-0.307618,-0.968575,0.824498,-0.433698,-0.280769,-1.314031,-0.757653
-0.555012,1.508347,-0.613774,-1.270876,0.751614,1.218439,-0.158370,-3.132509,1.496706,0.428155
-0.408819,1.092094,-0.044635,1.564686,0.362146,-0.948628,0.423562,-0.358497,-0.530267,-0.194751
0.009183,1.827547,0.429289,-0.221814,0.835553,0.591236,-0.669252,-1.018712,1.473585,-2.459930
-0.011637,0.120691,-0.712795,0.448461,0.357317,-2.101755,0.817272,-1.363394,0.395492,0.117581
-0.430929,0.711359,-1.409079,2.335253,-0.156793,-0.760020,-0.337082,-1.563009,1.198227,-1.031843
-0.967132,1.131807,0.264818,-1.807060,-0.167549,0.475343,0.036862,-2.233404,-0.643511,0.876340
-0.721308,-0.416530,-0.568977,-1.903781,0.367600,-0.622800,-0.813091,-1.948986,1.874199,0.206586
-0.039388,-0.606783,1.668585,-1.379022,-1.037482,0.066670,-0.248854,-2.134905,-0.436100,2.224868
0.043642,-0.062133,1.151681,-0.650503,0.763492,0.337931,0.374601,-0.728804,1.127766,0.612257
0.752327,0.618963,1.676882,0.791664,0.985044,0.844762,0.862747,0.911119,0.302122,0.982256
0.999216,0.863757,1.293192,0.870384,0.986590,0.980094,0.997734,0.990725,0.943571,0.919326
0.999536,0.999835,1.327070,0.999828,0.999831,0.999827,0.999673,0.997275,0.996527,0.869587
1.000000,1.000000,1.000000,1.000000,1.000000,1.000000,1.000000,1.000000,1.000000,1.000000
1.000000,1.000000,1.000000,1.000000,1.000000,1.000000,1.000000,1.000000,1.000000,1.000000
1.000000,1.000000,1.000000,1.000000,1.000000,1.000000,1.000000,1.000000,1.000000,1.000000
1.000000,1.000000,1.000000,1.000000,1.000000,1.000000,1.000000,1.000000,1.000000,1.000000
0.994917,0.992632,0.623782,2.954670,0.644030,0.937106,0.991413,0.581591,0.544857,-0.407656
0.729309,0.582221,0.432012,3.865798,0.279140,1.202639,0.977587,-0.182684,-0.935585,-1.638037
0.652717,-1.995250,-2.017914,-0.643060,0.000014,1.285046,0.930435,0.398789,-1.510230,1.772326
-0.106893,-0.524245,-0.910698,-0.178958,1.384266,0.246934,-0.162903,0.093891,0.831822,0.308132
-0.466897,-0.845425,0.137491,1.250607,-0.330169,-2.484928,-0.097068,1.599057,0.258512,0.286395
-1.360260,-2.719576,1.434544,2.417228,-1.053114,0.049416,-0.089194,-0.398215,-0.447305,-0.455217
-0.534416,-1.106068,-0.355709,-0.788960,1.107492,-1.217391,-0.764512,1.190729,0.654499,-1.966569
0.336257,0.407824,0.748818,-0.684046,-1.041414,0.726147,-1.284001,-0.372695,0.127781,2.126290
0.698037,-0.275240,0.009694,0.568468,0.008966,-0.014377,-1.279405,0.642308,-0.178547,-0.441649
0.481920,-1.459967,-0.798454,0.073437,0.260199,1.189776,-0.879474,-1.775524,-0.637181,0.646856
-0.012657,-1.630120,0.131638,0.832298,-0.604442,-1.398258,-2.577639,-0.564205,0.590535,-1.309165
-0.024120,0.600672,0.523905,-0.480066,1.210079,1.321514,-3.434619,0.188689,0.974151,-1.128473
0.278233,-2.130819,0.473597,-0.315619,-2.829339,0.705958,-1.935891,2.609650,-0.860959,0.135088
-0.333111,-2.200218,-1.516431,0.857567,1.090962,-0.290668,-0.925719,-0.953299,3.165590,0.681294
0.016403,1.453676,0.434573,-2.147386,-1.085927,0.061797,-0.516710,1.483605,-1.679852,0.555234
0.052549,0.981551,0.189970,1.381703,-1.305890,0.674759,-0.685507,-1.474797,0.524390,-0.507243
-0.356011,-0.569265,1.946456,0.063126,-0.802308,0.282117,-0.676412,-0.595475,1.065522,0.281466
-0.726764,-1.254484,1.149384,-1.125766,-1.838783,0.135381,-0.037640,-1.790516,0.957443,-0.364675
-0.316226,-1.183190,0.252950,-0.355998,-1.207173,-1.321355,0.085678,-0.545813,0.638940,0.836327
0.396089,0.566751,0.024176,1.307268,-0.754877,0.630138,0.590044,-1.278220,-0.115175,2.908859
0.705491,0.621817,0.264432,0.982263,0.395841,0.605694,0.828009,0.332828,1.406755,2.887732
0.877189,0.687222,1.990465,0.896934,0.928072,0.828787,0.991050,0.940884,0.930797,0.878281
0.999873,0.958256,1.285732,0.998546,0.999626,0.981632,0.999563,0.991191,0.999620,0.999379
1.000000,1.000000,1.000000,1.000000,1.000000,1.000000,1.000000,1.000000,1.000000,1.000000
1.000000,1.000000,1.000000,1.000000,1.000000,1.000000,1.000000,1.000000,1.000000,1.000000
1.000000,1.000000,1.000000,1.000000,1.000000,1.000000,1.000000,1.000000,1.000000,1.000000
1.000000,1.000000,1.000000,1.000000,1.000000,1.000000,1.000000,1.000000,1.000000,1.000000
1.000000,1.000000,1.000000,1.000000,1.000000,1.000000,1.000000,1.000000,1.000000,1.000000
0.999845,0.999924,0.999916,1.000882,0.999592,0.993288,0.999915,0.968514,0.997399,0.751330
0.998154,0.852801,0.820653,1.363473,0.921983,0.957345,0.998225,0.843522,0.896840,-0.384815
0.252108,0.462883,-2.374347,0.682969,0.214520,0.974235,0.988621,1.287809,0.505953,-0.892555
0.150552,0.223062,-2.868147,0.442524,-0.909247,0.516983,0.927147,0.424296,-0.980998,1.108994
-0.127469,0.027204,-3.060491,0.477561,-2.712961,-1.389943,0.914856,2.550792,-1.361543,-1.581996
-0.714834,-1.344419,-3.140576,0.208620,-0.117418,-1.015514,0.780566,-0.388413,0.611988,0.821499
-0.829337,-2.009812,-3.314551,0.571570,-0.375869,-0.150936,0.695773,0.709092,-1.416364,-0.251493
-2.087188,-1.803660,-3.197746,2.037144,-1.594925,0.514729,0.665528,-0.794779,-1.301113,-0.253460
-1.671056,-2.469143,-2.027895,-0.680549,-1.329381,-1.587073,0.661267,1.426813,-1.105953,0.081919
-0.990635,-3.135903,-1.884383,-0.243742,-2.744232,-0.519444,0.623368,0.973475,-0.229615,0.145274
-0.301929,-1.498209,-2.592145,3.272710,-2.042018,0.173148,-0.051123,-0.366026,-2.118776,1.806519
-1.398976,-0.303707,-2.701706,-0.856646,1.279585,-1.070423,-0.746511,1.553325,0.496892,-0.510171
-0.851375,0.943080,-2.283041,1.698886,0.047863,-1.256365,-0.095215,-1.242436,-1.067354,0.521518
-0.504501,-1.609840,-1.701573,-1.260505,-2.110593,-0.442302,0.220733,-0.324844,-0.397273,-1.028572
0.178006,-0.475644,-1.642225,-2.793029,-1.008930,0.733789,0.369534,0.532917,-0.331251,1.905446
0.099476,-0.165800,1.382749,0.808732,-1.094104,-1.241998,0.433368,-0.470393,-1.017948,2.814928
0.169718,0.242314,0.800684,0.473210,-2.264773,-0.852496,0.365676,1.349326,0.983171,-0.060693
-0.009997,0.429627,-0.772274,-0.926340,-0.321764,-1.568684,0.540461,-0.176066,-1.116181,2.108019
0.097924,0.834628,-0.848100,1.052016,-1.397392,-2.254589,0.510414,0.379294,-1.634770,2.597534
0.340091,0.899836,-1.049305,1.737529,-0.250860,0.305030,0.896990,-0.424264,-0.374119,1.092148
0.617969,0.868670,-0.560472,0.923581,2.403720,0.942532,0.964733,0.380510,0.525621,2.133886
0.939226,0.977982,0.666823,0.998776,1.340735,0.990925,0.996735,0.997409,0.932107,1.695235
1.000000,1.000000,1.000000,1.000000,1.000000,1.000000,1.000000,1.000000,1.000000,1.000000
1.000000,1.000000,1.000000,1.000000,1.000000,1.000000,1.000000,1.000000,1.000000,1.000000
1.000000,1.000000,1.000000,1.000000,1.000000,1.000000,1.000000,1.000000,1.000000,1.000000
1.000000,1.000000,1.000000,1.000000,1.000000,1.000000,1.000000,1.000000,1.000000,1.000000
1.000000,1.000000,1.000000,1.000000,1.000000,1.000000,1.000000,1.000000,1.000000,1.000000
1.000000,1.000000,1.000000,1.000000,1.000000,1.000000,1.000000,1.000000,1.000000,1.000000
0.999908,0.998025,0.998819,0.990851,0.994031,0.999733,0.999696,0.987368,0.980744,1.069197
0.998868,0.844783,0.916729,0.826049,0.676931,0.997768,0.997622,0.789283,0.803779,1.441402
0.295857,0.501858,0.587311,0.520095,0.332397,0.907061,0.994469,0.959324,0.694976,0.596057
0.392065,0.610334,0.295485,-0.050056,0.075948,0.804290,0.984286,-1.155997,0.043857,1.743254
0.473487,0.698814,0.053629,-0.133063,-1.220138,0.732421,0.968996,0.009848,-0.564340,0.377996
0.420319,0.278284,-0.117838,-1.235191,0.235095,-0.070956,0.926057,0.547124,-0.041971,1.235651
0.298986,0.475956,-0.815937,-1.543698,-1.453480,-0.466915,0.893353,0.587819,-0.624865,1.687197
-0.447514,0.279956,-0.963226,0.008787,-1.699750,-0.552273,0.869488,1.130156,-0.948447,-0.407966
-0.820131,-0.603706,-0.115629,1.005516,-0.946928,0.006417,0.871589,0.075812,-0.972184,-0.469428
-0.295734,-1.663643,-0.095207,-0.463061,-0.690813,-0.253960,0.868049,0.380423,-1.221133,0.666393
-0.386409,-0.206964,-0.218706,-1.168818,-0.974079,-0.064459,0.873607,0.180424,-1.367567,-0.705887
-0.151633,-0.237830,0.032202,-1.267017,-2.944213,-0.990725,0.551919,-0.527087,-1.199632,1.325112
0.539275,-0.192622,0.080761,-0.230961,-2.346229,-0.325126,0.752274,-0.731819,-0.405686,1.185423
0.502234,-0.728324,-0.158362,-2.069466,-2.078583,0.623182,0.815949,0.493231,-0.024003,1.493727
0.526908,-0.100166,-0.406429,-0.748420,-3.014215,0.140175,0.668206,0.560262,-0.216602,-0.650434
0.467521,0.291143,-0.965474,0.175585,-0.930985,-1.160917,0.631612,1.711310,-0.339513,2.050847
0.551629,0.435023,-0.589060,0.821284,-0.056940,-0.342247,0.773447,4.136614,-0.296562,-0.818577
0.507875,0.735176,0.008055,1.446835,0.074940,-0.240828,0.802191,-0.019649,-0.587736,-0.093217
0.238386,0.880114,0.683931,0.740519,-0.549307,-1.458704,0.555807,0.820483,-0.338137,0.675416
0.450694,0.892874,0.902361,0.839214,0.090556,0.263766,0.842981,0.521906,0.032797,2.004683
0.752052,0.943450,0.976730,0.930490,0.685904,0.984799,0.977047,0.562168,1.158862,1.560633
1.000000,1.000000,1.000000,1.000000,1.000000,1.000000,1.000000,1.000000,1.000000,1.000000
1.000000,1.000000,1.000000,1.000000,1.000000,1.000000,1.000000,1.000000,1.000000,1.000000
1.000000,1.000000,1.000000,1.000000,1.000000,1.000000,1.000000,1.000000,1.000000,1.000000
1.000000,1.000000,1.000000,1.000000,1.000000,1.000000,1.000000,1.000000,1.000000,1.000000
1.000000,1.000000,1.000000,1.000000,1.000000,1.000000,1.000000,1.000000,1.000000,1.000000
1.000000,1.000000,1.000000,1.000000,1.000000,1.000000,1.000000,1.000000,1.000000,1.000000
1.000000,1.000000,1.000000,1.000000,1.000000,1.000000,1.000000,1.000000,1.000000,1.000000
1.000000,1.000000,1.000000,1.000000,1.000000,1.000000,1.000000,1.000000,1.000000,1.000000
1.000000,1.000000,1.000000,1.000000,1.000000,1.000000,1.000000,1.000000,1.000000,1.000000
0.985845,0.999583,0.999583,0.999486,0.987979,0.997802,0.999567,1.007065,0.997341,-0.206331
0.969975,0.998930,0.999026,0.997985,0.948259,0.995887,0.998993,1.037683,0.991342,-0.725046
0.903928,0.997143,0.997211,0.978828,0.199840,0.990515,0.996371,1.175844,0.965479,-0.588067
0.833163,0.996057,0.818391,0.954842,0.561586,0.989351,0.994005,1.083232,0.855247,-0.049749
0.885926,0.996327,0.268876,0.881573,0.992116,0.972851,0.993864,1.002600,0.669859,0.120501
0.919067,0.992767,0.249040,0.687481,0.974522,0.927077,0.988641,1.008870,0.512212,-1.030548
0.943028,0.991258,0.713760,0.676323,0.876729,0.869017,0.984081,1.031548,0.515276,0.038919
0.767600,0.977008,0.620047,0.501826,0.727384,0.788820,0.971053,0.813258,-0.008092,-1.054448
0.577745,0.970294,0.373492,0.388819,0.632770,0.778703,0.968035,1.182913,0.185186,-1.952177
0.647253,0.978375,0.615046,0.030743,0.464638,0.792960,0.966972,1.112109,0.435925,-0.806065
0.926429,0.831824,0.813477,0.239833,0.191858,0.556245,0.962213,0.044508,0.647899,1.735508
0.853278,0.637819,0.835962,0.548466,0.719493,0.506033,0.955530,0.953462,0.696320,-0.109520
0.831953,0.730955,0.886996,0.624135,0.920177,0.576651,0.939945,1.133055,0.807626,-0.419546
0.882886,0.655842,0.877071,0.479711,0.916091,0.641090,0.916571,1.019348,0.722908,1.522526
0.892844,0.848084,0.956127,0.820729,0.870492,0.868104,0.971604,0.591286,0.778373,1.027537
0.933865,0.992076,0.992761,0.991992,0.884582,0.892388,0.976956,0.654873,0.951911,0.633103
0.848063,0.981423,0.995312,0.995231,0.600195,-0.695320,0.743751,1.714461,0.930238,-0.097438
0.863007,0.982495,0.996363,0.996365,0.745344,-0.079245,0.835351,1.544226,0.951349,0.324982
1.000000,1.000000,1.000000,1.000000,1.000000,1.000000,1.000000,1.000000,1.000000,1.000000
1.000000,1.000000,1.000000,1.000000,1.000000,1.000000,1.000000,1.000000,1.000000,1.000000
1.000000,1.000000,1.000000,1.000000,1.000000,1.000000,1.000000,1.000000,1.000000,1.000000
1.000000,1.000000,1.000000,1.000000,1.000000,1.000000,1.000000,1.000000,1.000000,1.000000
1.000000,1.000000,1.000000,1.000000,1.000000,1.000000,1.000000,1.000000,1.000000,1.000000
-9.763435,-4.385637,-4.791774,-8.059898,-2.385294,0.034949,-6.631494,-2.670520,-12.446697,-7.339146
